Language model created by QuickLM on Wed May  8 10:07:35 EDT 2019
Copyright (c) 1996-2010 Carnegie Mellon University and Alexander I. Rudnicky

The model is in standard ARPA format, designed by Doug Paul while he was at MITRE.

The code that was used to produce this language model is available in Open Source.
Please visit http://www.speech.cs.cmu.edu/tools/ for more information

The (fixed) discount mass is 0.5. The backoffs are computed using the ratio method.
This model based on a corpus of 30 sentences and 52 words

\data\
ngram 1=52
ngram 2=84
ngram 3=60

\1-grams:
-0.9103 </s> -0.3010
-0.9103 <s> -0.2379
-2.3874 BREAKFAST -0.2441
-2.3874 CARRY -0.2441
-2.3874 CHECK -0.2441
-2.3874 CHEF -0.2441
-2.0864 CLEAN -0.2920
-2.3874 DISK -0.2441
-2.3874 DRINKS -0.2441
-2.3874 ENHANCED -0.2975
-2.3874 FAREWELL -0.2441
-2.0864 FIND -0.2359
-2.3874 FOLLOW -0.2992
-2.3874 GARBAGE -0.2441
-2.0864 GENERAL -0.2975
-2.3874 GROCERIES -0.2441
-2.3874 HAND -0.2939
-2.3874 HI -0.2441
-2.3874 INIT -0.2992
-2.3874 IS -0.2992
-2.3874 LUGGAGE -0.2441
-2.3874 MATES -0.2441
-2.3874 ME -0.2441
-1.7853 MY -0.2939
-2.3874 OFF -0.2441
-2.3874 ON -0.2441
-2.3874 OUT -0.2939
-2.3874 POSE -0.2441
-2.0864 POWER -0.2975
-2.0864 PURPOSE -0.2441
-2.3874 RECEPTIONIST -0.2441
-2.3874 RESET -0.2992
-2.3874 RESTAURANT -0.2441
-2.3874 ROBOT -0.2441
-2.3874 SELF -0.2992
-2.3874 SERVE -0.2939
-2.3874 SERVICE -0.2992
-2.3874 SERVING -0.2992
-2.3874 SET -0.2939
-2.3874 SMOOTHIE -0.2992
-2.3874 START -0.2441
-2.3874 STORING -0.2992
-2.0864 TABLE -0.2441
-2.3874 TAKE -0.2992
-2.3874 TASK -0.2441
-2.3874 THAT -0.2441
-1.7853 THE -0.2939
-2.3874 THIS -0.2441
-2.3874 TINKER -0.2441
-2.3874 TO -0.2992
-2.3874 UP -0.2441
-2.3874 WHERE -0.2992

\2-grams:
-1.7782 <s> CARRY 0.0000
-1.4771 <s> CLEAN 0.0000
-1.7782 <s> ENHANCED 0.0000
-1.7782 <s> FAREWELL 0.0000
-1.4771 <s> FIND 0.0000
-1.7782 <s> FOLLOW 0.0000
-1.7782 <s> GENERAL 0.0000
-1.7782 <s> HAND 0.0000
-1.7782 <s> HI 0.0000
-1.4771 <s> MY -0.1761
-1.4771 <s> POWER 0.0000
-1.7782 <s> RECEPTIONIST 0.0000
-1.7782 <s> RESET 0.0000
-1.7782 <s> RESTAURANT 0.0000
-1.7782 <s> SELF 0.0000
-1.7782 <s> SERVE 0.0000
-1.7782 <s> SERVICE 0.0000
-1.7782 <s> SERVING 0.0000
-1.7782 <s> SET 0.0000
-1.7782 <s> SMOOTHIE 0.0000
-1.7782 <s> START 0.0000
-1.7782 <s> STORING 0.0000
-1.7782 <s> TAKE 0.0000
-1.7782 <s> TASK 0.0000
-1.7782 <s> TINKER 0.0000
-1.7782 <s> WHERE 0.0000
-0.3010 BREAKFAST </s> -0.3010
-0.3010 CARRY </s> -0.3010
-0.3010 CHECK </s> -0.3010
-0.3010 CHEF </s> -0.3010
-0.6021 CLEAN THE -0.1761
-0.6021 CLEAN UP 0.0000
-0.3010 DISK </s> -0.3010
-0.3010 DRINKS </s> -0.3010
-0.3010 ENHANCED GENERAL 0.0000
-0.3010 FAREWELL </s> -0.3010
-0.6021 FIND </s> -0.3010
-0.6021 FIND MY -0.2430
-0.3010 FOLLOW ME 0.0000
-0.3010 GARBAGE </s> -0.3010
-0.3010 GENERAL PURPOSE 0.0000
-0.3010 GROCERIES </s> -0.3010
-0.3010 HAND MY -0.2430
-0.3010 HI </s> -0.3010
-0.3010 INIT POSE 0.0000
-0.3010 IS THIS 0.0000
-0.3010 LUGGAGE </s> -0.3010
-0.3010 MATES </s> -0.3010
-0.3010 ME </s> -0.3010
-0.9031 MY DISK 0.0000
-0.9031 MY LUGGAGE 0.0000
-0.9031 MY MATES 0.0000
-0.9031 MY THAT 0.0000
-0.3010 OFF </s> -0.3010
-0.3010 ON </s> -0.3010
-0.3010 OUT THE -0.2430
-0.3010 POSE </s> -0.3010
-0.6021 POWER OFF 0.0000
-0.6021 POWER ON 0.0000
-0.3010 PURPOSE </s> -0.3010
-0.3010 RECEPTIONIST </s> -0.3010
-0.3010 RESET TO 0.0000
-0.3010 RESTAURANT </s> -0.3010
-0.3010 ROBOT </s> -0.3010
-0.3010 SELF CHECK 0.0000
-0.3010 SERVE THE -0.2430
-0.3010 SERVICE ROBOT 0.0000
-0.3010 SERVING DRINKS 0.0000
-0.3010 SET THE -0.1761
-0.3010 SMOOTHIE CHEF 0.0000
-0.3010 START </s> -0.3010
-0.3010 STORING GROCERIES 0.0000
-0.3010 TABLE </s> -0.3010
-0.3010 TAKE OUT 0.0000
-0.3010 TASK </s> -0.3010
-0.3010 THAT </s> -0.3010
-0.9031 THE BREAKFAST 0.0000
-0.9031 THE GARBAGE 0.0000
-0.6021 THE TABLE 0.0000
-0.3010 THIS </s> -0.3010
-0.3010 TINKER </s> -0.3010
-0.3010 TO INIT 0.0000
-0.3010 UP </s> -0.3010
-0.3010 WHERE IS 0.0000

\3-grams:
-0.3010 <s> CARRY </s>
-0.6021 <s> CLEAN THE
-0.6021 <s> CLEAN UP
-0.3010 <s> ENHANCED GENERAL
-0.3010 <s> FAREWELL </s>
-0.6021 <s> FIND </s>
-0.6021 <s> FIND MY
-0.3010 <s> FOLLOW ME
-0.3010 <s> GENERAL PURPOSE
-0.3010 <s> HAND MY
-0.3010 <s> HI </s>
-0.6021 <s> MY LUGGAGE
-0.6021 <s> MY MATES
-0.6021 <s> POWER OFF
-0.6021 <s> POWER ON
-0.3010 <s> RECEPTIONIST </s>
-0.3010 <s> RESET TO
-0.3010 <s> RESTAURANT </s>
-0.3010 <s> SELF CHECK
-0.3010 <s> SERVE THE
-0.3010 <s> SERVICE ROBOT
-0.3010 <s> SERVING DRINKS
-0.3010 <s> SET THE
-0.3010 <s> SMOOTHIE CHEF
-0.3010 <s> START </s>
-0.3010 <s> STORING GROCERIES
-0.3010 <s> TAKE OUT
-0.3010 <s> TASK </s>
-0.3010 <s> TINKER </s>
-0.3010 <s> WHERE IS
-0.3010 CLEAN THE TABLE
-0.3010 CLEAN UP </s>
-0.3010 ENHANCED GENERAL PURPOSE
-0.3010 FIND MY DISK
-0.3010 FOLLOW ME </s>
-0.3010 GENERAL PURPOSE </s>
-0.3010 HAND MY THAT
-0.3010 INIT POSE </s>
-0.3010 IS THIS </s>
-0.3010 MY DISK </s>
-0.3010 MY LUGGAGE </s>
-0.3010 MY MATES </s>
-0.3010 MY THAT </s>
-0.3010 OUT THE GARBAGE
-0.3010 POWER OFF </s>
-0.3010 POWER ON </s>
-0.3010 RESET TO INIT
-0.3010 SELF CHECK </s>
-0.3010 SERVE THE BREAKFAST
-0.3010 SERVICE ROBOT </s>
-0.3010 SERVING DRINKS </s>
-0.3010 SET THE TABLE
-0.3010 SMOOTHIE CHEF </s>
-0.3010 STORING GROCERIES </s>
-0.3010 TAKE OUT THE
-0.3010 THE BREAKFAST </s>
-0.3010 THE GARBAGE </s>
-0.3010 THE TABLE </s>
-0.3010 TO INIT POSE
-0.3010 WHERE IS THIS

\end\
